tree
version=v2
num_class=1
num_tree_per_iteration=1
label_index=0
max_feature_idx=8
objective=regression
feature_names=0 1 2 3 4 5 6 7 8
feature_infos=[-0.57519764483255642:7.2699952607143672] [-2.0712687530999676:1.7001112526450091] [-0.2398984540940852:4.1684303626559105] [-1.9056023538113036:4.6052536208240866] [-0.66981838612285838:3.3900044970733374] [-0.44599484437536152:12.146768041398909] [-138.53992535038614:2.1911323084669068] [-0.72858535069498509:2.9491055644407487] [-2.0360717537590176:29.643475604333336]
tree_sizes=2472 2586 2598 2576 2599 2584 2617 2588 2573 2595 2582 2589 2580 2573 2560 2610 2574 2573 2601 2589

Tree=0
num_leaves=31
num_cat=0
split_feature=3 6 4 8 6 3 8 8 8 0 6 6 8 5 8 8 0 4 8 8 3 1 3 6 4 4 3 3 3 6
split_gain=35.0728 30.8121 17.5979 13.003 9.56089 11.6014 7.83626 7.22886 9.08522 7.80517 7.17784 6.55698 6.50577 6.32871 6.12578 11.0439 6.4994 6.47618 5.7332 5.2692 5.21859 5.21252 8.83509 4.68753 4.49482 4.47634 4.24119 4.1071 4.09421 3.94548
threshold=1.8506607084783451 0.60862723029488819 -0.37983103732313006 -1.830154695931417 -0.094708360003786865 -0.82045969137207175 -1.8618342432895096 0.60917045064169384 1.4645182293101875 1.1059151206417848 -0.35046675647603226 -0.28652715735797091 -1.3232819382019396 1.0000000180025095e-35 0.3874136191350474 1.4328386819520953 1.1059151206417848 1.0000000180025095e-35 -1.3232819382019396 0.22901588234458556 0.68204553354378761 -0.65700125094560125 -0.98740471636272276 -0.19061775868087891 0.7801183578757831 3.1000171482736092 1.6837156834876938 -0.48656964139076969 2.5184408084409493 0.44877823249973475
decision_type=2 2 2 2 2 2 2 2 2 2 2 2 2 2 2 2 2 2 2 2 2 2 2 2 2 2 2 2 2 2
left_child=1 2 4 -4 5 -1 -7 9 -9 21 -5 28 -3 29 17 16 20 23 -11 24 -16 22 -6 -12 -19 -21 -20 -17 -2 -10
right_child=11 12 3 10 7 6 -8 8 13 18 14 -13 -14 -15 15 27 -18 19 26 25 -22 -23 -24 -25 -26 -27 -28 -29 -30 -31
leaf_value=2.2330720608173698 2.2242703298448565 2.1875532955757127 2.1903157331592027 2.2233670436811312 2.2368677464503008 2.182047990395747 2.2235359014138409 2.2043336819000077 2.2316259778915231 2.1905651767289673 2.1649087064150589 2.1984729611060243 2.2084825319736976 2.1968352323825484 2.2052144641721054 2.2301509922286629 2.224217711480831 2.2201813023426515 2.2365528481956773 2.2245666323873032 2.1855360310822087 2.2220113685305023 2.2093130640959413 2.2082087463213327 2.2127856330108409 2.2520308325568879 2.1905898642598207 2.2148509054932295 2.1968706092193444 2.1953820203867354
leaf_count=1573 186 164 180 1607 136 45 4546 592 343 30 35 990 1520 75 826 279 151 2171 531 395 161 3259 773 84 1321 69 20 469 76 32
internal_value=0 0.00952637 0.020625 -0.0164968 0.044683 0.0720906 0.0466778 0.0155026 -0.0598869 0.0320532 -0.0101604 -0.16261 -0.120265 0.0471603 -0.0261509 -0.0732555 -0.135253 -0.00433722 0.140534 0.00260445 -0.164792 0.0169014 -0.0500226 -0.233203 -0.0107088 0.102605 0.163834 0.0211213 -0.0218315 0.100264
internal_count=22639 21387 19703 7748 11955 6164 4591 5791 1042 4749 7568 1252 1684 450 5961 1886 1138 4075 581 3956 987 4168 909 119 3492 464 551 748 262 375
shrinkage=1


Tree=1
num_leaves=31
num_cat=0
split_feature=6 3 8 0 3 3 8 8 8 4 6 0 3 1 8 8 5 6 4 1 8 3 8 8 3 8 8 4 6 6
split_gain=28.8501 17.3252 13.7677 16.1482 13.6738 10.4833 8.99051 7.25594 7.62237 7.22221 7.12317 5.60822 10.276 5.56683 5.34497 9.50444 5.06381 5.05764 4.4467 4.58261 4.39584 4.36008 4.48165 5.68105 4.3159 4.22244 4.21578 4.18463 7.02056 4.15206
threshold=-0.03076876088572552 1.6837156834876938 -1.3232819382019396 1.0000000180025095e-35 2.0176057334689963 -0.98740471636272276 -1.8618342432895096 0.60917045064169384 1.5912364187425569 0.7801183578757831 0.64059702985391886 1.0000000180025095e-35 0.5151005085531366 -0.65700125094560125 0.68836931903692478 1.3378000398778183 1.0000000180025095e-35 0.32089903426361199 -0.37983103732313006 1.0000000180025095e-35 -0.46793415953344614 2.3514957834502983 1.4645182293101875 1.2110818504454486 1.0159355835250898 1.7813137028911112 0.78340796111120181 0.7801183578757831 -0.35046675647603226 0.12908023690942791
decision_type=2 2 2 2 2 2 2 2 2 2 2 2 2 2 2 2 2 2 2 2 2 2 2 2 2 2 2 2 2 2
left_child=4 2 9 7 5 -1 -7 10 -9 -2 24 12 18 -3 -5 17 -10 -16 19 -8 -15 22 23 -22 -4 -18 -21 -13 -29 -26
right_child=1 13 3 14 -6 6 11 8 16 -11 -12 27 -14 20 15 -17 25 -19 -20 26 21 -23 -24 -25 29 -27 -28 28 -30 -31
leaf_value=0.010401448076938637 -0.0080030649817975554 -0.032794450283932589 -8.9067437810331926e-05 0.0071334617162276534 -0.014114890212510924 -0.024171368933598242 0.0014005059300412929 -0.015064009567168586 0.0078041220257251426 -0.02813313017468573 -0.011945125269479887 0.0077134869831088472 -0.0077525080898122913 -0.0039082308819419461 -0.0050999157829210162 0.0059482326799442471 -0.0021307789006660104 -0.035345312087890615 -0.00080756461296948093 0.012103879519370425 -0.027194141100937871 -0.0051890129942780104 -0.00086973654106259346 -0.07333611994558438 -0.03182520125375455 -0.049524927854297629 0.00064635978339296985 0.013883135803261696 -0.011357318562785946 -0.0048026911975418939
leaf_count=2088 479 188 3835 2163 432 123 1538 1039 289 284 686 2829 1071 284 113 389 48 108 1894 1189 156 122 47 32 82 30 440 170 309 182
internal_value=0 -0.0382019 -0.0263654 -0.0153807 0.0333541 0.0398359 0.0258137 -0.0437846 -0.106916 -0.155228 -0.0252159 0.0293247 0.0114186 -0.176886 0.0480266 -0.0346026 0.0169433 -0.199731 0.0302523 0.0531693 -0.13214 -0.205854 -0.285225 -0.353946 -0.00941963 -0.207555 0.0901145 0.0625035 -0.0238907 -0.132845
internal_count=22639 10556 9727 8964 12083 11651 9563 6191 1406 763 4785 9440 6132 829 2773 610 367 221 5061 3167 641 357 235 188 4099 78 1629 3308 479 264
shrinkage=0.1


Tree=2
num_leaves=31
num_cat=0
split_feature=6 3 4 8 3 0 6 8 8 7 1 8 6 6 8 8 0 4 8 8 8 3 6 3 6 6 8 4 6 3
split_gain=23.9715 20.2463 12.4494 8.99084 6.91599 7.5293 8.60101 7.88104 5.99474 5.68825 5.11213 5.98251 5.01303 4.90904 4.57861 8.42959 5.47102 5.35682 5.13113 4.16472 4.13473 4.13191 5.59326 4.11857 4.03069 3.95584 3.86491 3.89249 3.74953 3.6697
threshold=0.60862723029488819 1.8506607084783451 -0.37983103732313006 -1.830154695931417 -0.98740471636272276 1.0000000180025095e-35 0.28892923470458132 -1.3232819382019396 -1.3232819382019396 1.0000000180025095e-35 -0.65700125094560125 0.60917045064169384 -0.35046675647603226 0.12908023690942791 0.3874136191350474 1.4328386819520953 1.0000000180025095e-35 1.0000000180025095e-35 0.78340796111120181 0.60917045064169384 0.22901588234458556 0.34815548356248543 -0.094708360003786865 1.0159355835250898 -0.062738560444756189 -0.22258755823990958 -0.68969099104009257 2.5200424506741528 0.9922648250032563 1.0159355835250898
decision_type=2 2 2 2 2 2 2 2 2 2 2 2 2 2 2 2 2 2 2 2 2 2 2 2 2 2 2 2 2 2
left_child=1 2 4 -4 9 6 10 23 28 24 -6 29 26 -3 17 16 18 25 19 21 -19 22 -16 -7 -1 -14 27 -5 -2 -12
right_child=8 13 3 12 5 7 -8 -9 -10 -11 11 -13 14 -15 15 -17 -18 20 -20 -21 -22 -23 -24 -25 -26 -27 -28 -29 -30 -31
leaf_value=0.0096126246515934061 -0.020886650184394829 -0.0078964168245631242 -0.023446653526564495 -0.0083971464833201368 -0.0039923012027386689 -0.0040458441744200312 -0.0082806434805973127 0.0074147693541721975 -0.0089703000138320593 0.014787744507837245 0.0063321132389552509 -0.0035840744310606659 -0.051965183115774582 -0.022569317379268598 -0.034111140650220036 0.0019424663359257025 -0.00079535480543244184 -0.00089249192071012623 -0.0099424450160580571 -0.05324801520577499 0.0091452485653828394 -0.044432781898748067 1.0340578026241727e-05 -0.036765541637485681 -0.0020438742770631266 -0.010313372806025048 0.0068596765259242411 0.020723803678773484 -0.05744866602322353 -0.0090110312000189607
leaf_count=655 156 760 180 343 1100 129 940 3343 1660 925 3204 901 30 326 81 748 327 3492 508 48 464 58 116 54 541 89 1212 52 34 163
internal_value=0 0.00968479 0.0170138 -0.0142091 0.0372488 0.0260733 0.00538306 0.0630761 -0.109074 0.0890271 0.0208386 0.0365045 -0.00894014 -0.123177 -0.0223035 -0.0630274 -0.117192 -0.0034447 -0.161174 -0.264033 0.0028685 -0.211619 -0.141207 -0.138482 0.0434261 -0.211594 0.0406128 -0.0452085 -0.276959 0.0558688
internal_count=22639 20789 19703 7748 11955 9834 6308 3526 1850 2121 5368 4268 7568 1086 5961 1886 1138 4075 811 303 3956 255 197 183 1196 119 1607 395 190 3367
shrinkage=0.1


Tree=3
num_leaves=31
num_cat=0
split_feature=6 3 3 8 0 3 8 4 8 8 6 3 1 8 8 4 6 0 3 8 3 6 3 6 3 0 8 6 1 8
split_gain=20.0474 11.5902 9.6986 9.64423 11.6056 7.36253 6.14711 5.73021 5.27479 5.76672 4.83925 4.72377 4.58518 4.2327 7.65156 4.04661 4.70432 4.48507 9.08954 4.0162 4.00806 3.95603 3.94693 5.49759 4.39204 3.8971 3.77547 4.72499 3.43395 3.39548
threshold=-0.03076876088572552 1.6837156834876938 2.0176057334689963 -1.3232819382019396 1.0000000180025095e-35 -0.98740471636272276 -1.8618342432895096 0.7801183578757831 0.60917045064169384 1.5912364187425569 0.54468763117682684 -0.48656964139076969 -0.65700125094560125 0.68836931903692478 1.3378000398778183 0.7801183578757831 -0.25455735779894023 1.0000000180025095e-35 0.5151005085531366 -1.6083978644247707 -0.31962461640011869 0.28892923470458132 0.68204553354378761 0.41680843294070408 1.0159355835250898 3.3473988079409063 -0.46793415953344614 0.41680843294070408 1.0000000180025095e-35 0.41909316649313971
decision_type=2 2 2 2 2 2 2 2 2 2 2 2 2 2 2 2 2 2 2 2 2 2 2 2 2 2 2 2 2 2
left_child=2 3 5 7 8 -1 -7 22 10 -10 -5 -11 -3 -6 21 17 -17 18 28 -18 -9 -15 -2 -24 -25 26 27 -14 -8 -4
right_child=1 12 29 4 13 6 15 20 9 11 -12 -13 25 14 -16 16 19 -19 -20 -21 -22 -23 23 24 -26 -27 -28 -29 -30 -31
leaf_value=0.0087018922492041444 -0.0011282391300984241 -0.028234790277386471 -0.0056130314819437411 -0.00047987765481664467 0.0061498105293570186 -0.019973000508522798 0.00068984400284357325 -0.0096105205947938175 -0.012893602109464926 0.011797955973193094 -0.008272917727838355 -0.010972488771771968 0.012615106484907516 -0.0034456487772438456 0.0051648348228385058 0.0028150956123328408 0.014497688275833543 0.0064925763175975818 -0.0075285605062476576 -0.01180399325726695 -0.033929828899144608 -0.03029112060023241 -0.0048674336195776279 -0.077594649523496637 -0.01470058508725329 -0.03143936848291793 -0.014791053831459783 -0.015598044632790015 0.0063036877658364764 -0.024404776827271643
leaf_count=2088 362 188 288 3776 2163 123 2213 114 1039 204 1009 163 152 101 389 725 64 2829 910 553 170 120 72 24 21 77 316 96 2146 144
internal_value=0 -0.031873 0.0277758 -0.0221916 -0.0129979 0.0332347 0.0214835 -0.130044 -0.0370775 -0.0909044 -0.0212456 0.0168232 -0.145305 0.0407563 -0.0327724 0.0243867 -0.026458 0.0328149 0.0155651 -0.0905674 -0.242358 -0.180932 -0.0630865 -0.221915 -0.492017 -0.104734 -0.0756047 0.016751 0.0345443 -0.119188
internal_count=22639 10556 12083 9727 8964 11651 9563 763 6191 1406 4785 367 829 2773 610 9440 1342 8098 5269 617 284 221 479 117 45 641 564 248 4359 432
shrinkage=0.1


Tree=4
num_leaves=31
num_cat=0
split_feature=6 3 8 8 8 7 7 4 5 6 6 3 0 3 6 3 8 6 8 3 0 6 8 8 3 8 8 8 3 4
split_gain=16.4642 12.9775 9.86239 8.5716 9.92578 6.5881 12.9471 5.99557 5.21356 5.18124 5.03033 4.70682 4.27587 4.75684 4.36466 4.17128 4.07882 3.54425 3.43742 6.40728 3.40395 3.2957 3.15604 3.04295 2.8521 2.84653 7.15231 3.67857 3.63017 2.83198
threshold=0.64059702985391886 1.8506607084783451 -1.3232819382019396 0.60917045064169384 1.5278773240263723 1.0000000180025095e-35 1.1102601068728821 1.3600930554752397 1.0000000180025095e-35 -0.47834595471215502 -0.35046675647603226 -0.98740471636272276 1.0000000180025095e-35 -1.3212947663440249 -0.094708360003786865 0.5151005085531366 1.0368443399759408 -0.28652715735797091 -1.2599228434857548 -0.48656964139076969 1.0000000180025095e-35 0.9922648250032563 0.30821475073981647 -0.46793415953344614 2.5184408084409493 -0.56297280160772323 -0.68969099104009257 0.41909316649313971 1.1828806085157408 -0.37983103732313006
decision_type=2 2 2 2 2 2 2 2 2 2 2 2 2 2 2 2 2 2 2 2 2 2 2 2 2 2 2 2 2 2
left_child=1 2 -1 5 7 12 11 10 9 -6 20 -7 13 -4 15 -15 -9 24 19 -2 -5 -21 23 -8 -3 26 -14 28 -27 -19
right_child=18 17 3 4 8 6 22 16 -10 -11 -12 -13 25 14 -16 -17 -18 29 -20 21 -22 -23 -24 -25 -26 27 -28 -29 -30 -31
leaf_value=-0.0069781070875930377 0.0057268533441755505 0.0070443278395528486 0.0086270588714036905 -0.00043682403308177125 -0.016513939293962655 0.016922633563001607 0.0010911240707466416 -0.051502413933093731 -0.0079062786129760042 0.0079042547088248455 -0.007031982896458875 0.007692141414809975 0.0019614117446093305 0.0032495219335717802 -0.0040105696283154668 -0.0094169553112694801 -0.015468148174045912 -0.0069676762237044429 -0.0079101404876999511 -0.023272904153698343 0.018693606363188838 -0.056729735270506003 0.0065306241587140008 -0.0073637953523445409 -0.015823206697385035 -0.0023285221125873136 0.019068294405753233 0.0119428238391585 0.012039885746882015 -0.018563469415423514
leaf_count=1333 62 186 546 372 92 686 1132 38 313 1339 1798 2847 617 2248 2656 293 171 412 1391 116 123 40 554 681 76 1167 404 306 206 434
internal_value=0 0.00741482 0.0132751 0.0192344 -0.020229 0.0309175 0.0565526 -0.0605856 0.0376695 0.0632396 -0.0457518 0.094887 0.0129989 -0.00243296 -0.011767 0.0178583 -0.222339 -0.0978707 -0.0975091 -0.214067 0.043449 -0.321583 -0.000681455 -0.0208703 0.00376055 0.0458119 0.0874248 0.0204702 -0.00165544 -0.129312
internal_count=22639 21030 19922 18589 4246 14343 5900 2502 1744 1431 2293 3533 8443 5743 5197 2541 209 1108 1609 218 495 156 2367 1813 262 2700 1021 1679 1373 846
shrinkage=0.1


Tree=5
num_leaves=31
num_cat=0
split_feature=6 4 8 3 8 8 3 6 0 6 3 8 7 5 3 1 6 6 8 8 6 3 7 7 7 6 4 6 8 0
split_gain=14.1069 8.02129 7.10472 6.63415 6.21431 10.6533 5.77011 5.85135 6.98377 6.49963 5.30801 4.57387 4.35114 4.29223 4.02231 3.79726 3.61833 5.26275 3.57691 3.37358 2.98042 2.95815 2.95738 3.07442 2.88563 3.25599 2.88252 3.6115 3.3887 3.29977
threshold=-0.03076876088572552 -0.37983103732313006 -1.4183205802762167 2.0176057334689963 0.60917045064169384 1.5912364187425569 1.5167706584970428 0.033170838232335846 1.0000000180025095e-35 0.73650642853101089 -0.98740471636272276 -1.8618342432895096 1.1102601068728821 1.0000000180025095e-35 0.1812104585718344 -0.65700125094560125 1.0242346245622871 1.1521138227984098 -0.26201710170584586 1.7813137028911112 0.57665743073585751 0.34815548356248543 1.0000000180025095e-35 1.1102601068728821 1.0000000180025095e-35 -0.54228555383021626 0.7801183578757831 -0.25455735779894023 -1.6083978644247707 1.0000000180025095e-35
decision_type=2 2 2 2 2 2 2 2 2 2 2 2 2 2 2 2 2 2 2 2 2 2 2 2 2 2 2 2 2 2
left_child=3 4 -3 10 16 13 7 8 21 12 24 -12 -9 -6 -14 -8 22 18 -18 -7 -15 -4 -2 -24 25 -1 29 -28 -29 -13
right_child=1 2 6 -5 5 19 15 9 -10 -11 11 26 14 20 -16 -17 17 -19 -20 -21 -22 -23 23 -25 -26 -27 27 28 -30 -31
leaf_value=-0.0210900012254715 -0.00032007756309166346 -0.017164422740286331 -0.017385676149453775 -0.0098265137108296645 -0.0082116370569745491 0.022224015608786587 -0.036603189270411222 0.0021497558713907887 0.0038197823580250973 -0.013483332793688156 -0.017299633298910433 0.0012642668365934271 -0.00068888211473441168 -0.016530034894959664 -0.018965932451552009 -0.011175944353883846 -0.0068443647137394663 0.0096439421261576095 -0.055539563711027841 -0.0066879574348333113 -0.04418107490858128 -0.041560344102189825 0.0084591395486747906 0.00017309822521192585 0.011312726165426319 0.0050272322098787563 0.0025259225707200995 0.013757298643199299 -0.010399926692312114 0.0054981180722228759
leaf_count=49 3118 498 212 432 726 140 69 2156 143 398 123 5269 292 126 204 378 26 43 36 56 57 67 1002 809 976 1063 725 64 553 2829
internal_value=0 -0.026753 -0.0592459 0.0232835 -0.00336861 -0.0712414 -0.0449229 -0.0311313 -0.141352 -0.0158397 0.0277984 0.0178207 0.00206244 -0.116832 -0.0822909 -0.151739 0.0115412 -0.171267 -0.355518 0.139714 -0.25336 -0.233188 0.0154694 0.0475978 0.0734658 0.0385847 0.020325 -0.0225876 -0.0787595 0.0274384
internal_count=22639 10556 4417 12083 6139 1105 3919 3472 422 3050 11651 9563 2652 909 496 447 5034 105 62 196 183 279 4929 1811 2088 1112 9440 1342 617 8098
shrinkage=0.1


Tree=6
num_leaves=31
num_cat=0
split_feature=4 5 8 6 3 7 7 8 1 6 4 6 3 1 6 0 8 8 8 8 8 6 8 3 8 3 0 1 1 8
split_gain=11.8371 7.05625 7.09343 6.78376 6.16376 6.05664 6.88857 5.39759 4.68686 4.55102 4.53955 4.26538 3.98393 4.56781 3.94143 4.55081 3.75963 3.58793 3.54886 6.09707 5.33267 3.39694 3.76093 3.77331 5.31141 3.28726 3.27622 4.50415 3.22441 3.0757
threshold=-0.37983103732313006 1.0000000180025095e-35 0.60917045064169384 0.73650642853101089 2.0176057334689963 1.0000000180025095e-35 1.1102601068728821 -1.4183205802762167 1.0000000180025095e-35 -0.12667815956281753 1.0000000180025095e-35 0.033170838232335846 1.6837156834876938 -0.65700125094560125 -0.03076876088572552 1.0000000180025095e-35 -0.72137053839818488 -1.0064864646210159 -0.68969099104009257 -0.26201710170584586 0.070618145554123782 -0.35046675647603226 -0.4996137068915385 0.68204553354378761 1.4645182293101875 1.0000000180025095e-35 1.0000000180025095e-35 -0.65700125094560125 -1.5998462523818453 1.5912364187425569
decision_type=2 2 2 2 2 2 2 2 2 2 2 2 2 2 2 2 2 2 2 2 2 2 2 2 2 2 2 2 2 2
left_child=1 5 -3 4 7 8 25 10 12 -4 -2 -12 18 -14 -10 29 17 -6 -1 -20 -21 -9 -23 -24 26 -7 28 -28 -25 -16
right_child=3 2 9 -5 16 6 -8 21 14 -11 11 -13 13 -15 15 -17 -18 -19 19 20 -22 22 23 24 -26 -27 27 -29 -30 -31
leaf_value=-0.0064779668386523055 -0.034111452019116022 -0.00046613142887237603 -0.0021418698731872996 -0.014052639726588576 -0.0085176332783298333 0.011460305067409002 0.00049428224004865529 0.0034591041314433477 0.0063861842701862211 -0.022899181162543105 -0.00028419136367921759 -0.015856299978168831 -0.029162501012308335 0.0010844252753241729 -0.0060687400445543493 0.0062177694769627303 -0.020402276425099956 0.030179988350719212 0.010540645826174307 -0.033179102074623538 -0.00066683960847893067 0.0014779923095625423 -0.0020917109051725056 -0.0047465762173807304 0.0056515497259576539 0.0042652225986879785 -0.030775857278358139 -0.0019499915018400739 -0.029511173115558148 0.01714487034888541
leaf_count=807 67 1797 176 504 118 1750 1540 1565 2086 264 405 310 108 92 896 655 286 29 537 51 1693 2201 2875 73 169 999 67 268 191 60
internal_value=0 0.0187398 -0.0325536 -0.0278724 -0.0212732 0.0289195 0.058494 -0.0151178 0.0107542 -0.146199 -0.0940775 -0.0704845 -0.0167106 -0.153127 0.0351785 -0.0019787 -0.137411 -0.00731072 -0.00782865 0.0123397 -0.0163607 -0.0067722 -0.0178531 -0.0375678 -0.0997911 0.0884808 -0.143912 -0.077896 -0.227071 -0.0459543
internal_count=22639 13511 2237 9128 8624 11274 4289 8191 6985 440 782 715 3288 200 3697 1611 433 147 3088 2281 1744 7409 5844 3643 768 2749 599 335 264 956
shrinkage=0.1


Tree=7
num_leaves=31
num_cat=0
split_feature=6 4 4 8 1 3 3 8 3 8 8 8 6 3 6 7 7 8 6 6 6 8 3 3 3 0 6 6 1 8
split_gain=9.8512 7.98461 5.7771 7.04007 5.22742 5.6144 4.53469 4.64375 4.5045 4.47871 7.95854 4.49152 5.35912 4.32985 3.91754 3.73748 4.09014 3.61432 3.53494 3.47786 3.51596 3.47296 3.25206 3.1308 6.99177 3.03583 2.85731 3.25348 3.36442 4.15298
threshold=0.60862723029488819 -0.37983103732313006 1.0000000180025095e-35 0.13397724027030852 -0.65700125094560125 1.8506607084783451 2.0176057334689963 -0.72137053839818488 0.84899055853443861 0.60917045064169384 1.1477227557292642 -1.4816796749924013 0.065140637791366529 -0.98740471636272276 -0.19061775868087891 1.1102601068728821 1.0000000180025095e-35 0.30821475073981647 -0.35046675647603226 0.12908023690942791 -0.03076876088572552 -1.4183205802762167 1.0000000180025095e-35 1.1828806085157408 0.84899055853443861 1.0000000180025095e-35 -0.57425535338924694 0.35286883382264272 -1.5998462523818453 0.3874136191350474
decision_type=2 2 2 2 2 2 2 2 2 2 2 2 2 2 2 2 2 2 2 2 2 2 2 2 2 2 2 2 2 2
left_child=1 4 3 8 5 13 15 -8 14 11 19 12 -6 -1 -3 16 -4 -5 23 20 -11 22 -2 24 -13 26 -15 28 -28 -30
right_child=21 2 6 17 9 -7 7 -9 -10 10 -12 18 -14 25 -16 -17 -18 -19 -20 -21 -22 -23 -24 -25 -26 -27 27 -29 29 -31
leaf_value=0.009449049777802471 -0.0059613277136189189 -0.041536229113504915 -0.0013238798649593229 0.035191577548782035 -0.014043401790322303 -0.021163766296056159 0.0037845778952890299 -0.020099132537742148 -0.056153482761647971 -0.014190210925380878 0.001503168124018514 0.0094653115319006716 0.010599188084153367 -0.032711377377445637 -0.0052349929418414841 -0.0053932520907765454 0.0042975817281007966 -0.0061496051991086331 0.0037273482839299365 -0.032896701378954778 0.026129774898290638 -0.005610428590116694 -0.033669559406504658 0.024310592651337146 -0.019939771972510012 0.0031404793344231943 -9.9239041094218025e-05 -0.017489036761357317 -0.026214440053691931 0.004473774608480416
leaf_count=352 81 47 4319 23 270 142 122 242 44 162 1788 1372 130 36 79 1381 1847 177 6022 89 24 1680 89 123 85 627 932 167 117 70
internal_value=0 0.00616769 -0.0179169 -0.139878 0.0221132 -0.0193757 -0.0121958 -0.121057 -0.288856 0.0321844 -0.00935705 0.0428941 -0.060281 -0.00742398 -0.189964 -0.00692992 0.0036043 -0.0124394 0.0483301 -0.167408 -0.0887572 -0.0699634 -0.205795 0.090421 0.0773735 -0.0258693 -0.0530365 -0.0451159 -0.0256094 -0.147642
internal_count=22639 20789 8281 370 12508 2443 7911 364 170 10065 2063 8002 400 2301 126 7547 6166 200 7602 275 186 1850 170 1580 1457 1949 1322 1286 1119 187
shrinkage=0.1


Tree=8
num_leaves=31
num_cat=0
split_feature=6 8 8 8 5 3 6 3 0 3 8 3 8 5 0 6 0 8 8 3 8 0 3 6 5 8 8 6 3 6
split_gain=8.5834 5.16447 6.96418 6.82488 4.64028 4.43753 3.44823 4.94171 3.43069 6.00754 3.65335 3.41221 3.37705 3.30468 3.29261 3.10314 3.04261 3.331 2.94622 2.87025 3.43742 3.73727 3.44364 2.8637 2.83399 3.41592 5.15491 3.96048 2.85373 4.50726
threshold=-0.03076876088572552 -1.0540057856581544 0.60917045064169384 1.4645182293101875 1.0000000180025095e-35 -0.98740471636272276 0.41680843294070408 -0.15267959140946766 1.0000000180025095e-35 1.6837156834876938 -0.46793415953344614 2.8523308584222513 -1.8618342432895096 1.0000000180025095e-35 2.2266569642913456 0.12908023690942791 1.1059151206417848 1.686275060816834 1.7813137028911112 0.5151005085531366 1.2110818504454486 1.0000000180025095e-35 1.6837156834876938 1.0242346245622871 1.0000000180025095e-35 -0.087779591236337981 -0.97480691726292379 -0.57425535338924694 1.0159355835250898 -0.15864795912184823
decision_type=2 2 2 2 2 2 2 2 2 2 2 2 2 2 2 2 2 2 2 2 2 2 2 2 2 2 2 2 2 2
left_child=5 6 8 19 15 -1 -2 13 23 -10 -11 12 -7 -8 -13 -5 18 -18 -6 -4 -21 22 -22 -3 -14 26 -26 -27 -29 -30
right_child=1 2 3 4 16 11 7 -9 9 10 -12 14 24 -15 -16 -17 17 -19 -20 20 21 -23 -24 -25 25 27 -28 28 29 -31
leaf_value=0.0060055503881890409 -0.0033191656527594309 -0.00071907897723790556 -0.007942316213454835 -0.0055198964236148331 -0.010132803488522768 -0.014788204791362992 0.0021744235700034364 -0.019608685223715061 0.0057389929600401525 0.0053723628608215801 -0.016945119875658683 -0.033141669952733953 0.0020128396845755731 -0.026276765691534601 0.012186598194682081 0.0079206604753175557 -0.022398776967417114 0.02730814973158496 -0.038080772447951688 -0.0075803070215699391 -0.028646707815765327 -0.014989538940264741 -0.072358800470829016 -0.016710758125004561 -0.0088793784367900159 -0.039816802139911393 0.0093095229657076829 -0.0091585727580339848 0.017646809404444262 -0.018202186626597092
leaf_count=2088 969 4270 859 250 129 131 244 409 1946 113 206 54 8377 48 22 544 21 34 53 155 58 107 27 114 250 35 410 558 107 51
internal_value=0 -0.0208919 -0.0112992 -0.0595502 0.000200116 0.0181384 -0.0718969 -0.125276 0.00494091 0.0365341 -0.0904747 0.00937656 0.0110033 -0.025762 -0.200325 0.0368713 -0.122295 0.0826807 -0.184351 -0.110588 -0.187287 -0.276429 -0.432117 -0.0113864 0.0131447 -0.0283018 0.0241678 -0.0743844 -0.0580237 0.060336
internal_count=22639 10556 8886 2237 1031 12083 1670 701 6649 2265 319 9995 9919 292 76 794 237 55 182 1206 347 192 85 4384 9788 1411 660 751 716 158
shrinkage=0.1


Tree=9
num_leaves=31
num_cat=0
split_feature=4 7 8 7 8 6 7 7 4 1 3 5 3 0 8 3 6 6 3 3 3 1 8 8 6 6 6 8 8 3
split_gain=7.63645 4.9502 4.47501 4.38692 4.35049 4.28947 4.62737 4.86195 4.12861 3.77898 3.80552 3.67476 3.50433 3.03614 2.88324 3.23896 2.85332 2.77409 3.59571 2.94772 2.66311 5.95577 3.0402 3.5172 2.6951 2.47607 2.46311 3.82523 4.17203 3.05866
threshold=-0.37983103732313006 1.0000000180025095e-35 0.60917045064169384 1.1102601068728821 1.1477227557292642 0.73650642853101089 1.1102601068728821 1.0000000180025095e-35 1.0000000180025095e-35 -0.65700125094560125 -0.98740471636272276 1.0000000180025095e-35 0.34815548356248543 1.0000000180025095e-35 -0.68969099104009257 -0.31962461640011869 -0.28652715735797091 -0.15864795912184823 1.3498256335063918 1.0159355835250898 0.5151005085531366 1.0000000180025095e-35 1.7813137028911112 1.5278773240263723 0.35286883382264272 0.89635542632616427 0.28892923470458132 1.2110818504454486 -0.7530500857562773 1.0159355835250898
decision_type=2 2 2 2 2 2 2 2 2 2 2 2 2 2 2 2 2 2 2 2 2 2 2 2 2 2 2 2 2 2
left_child=1 2 9 11 -4 6 7 8 -2 10 -1 -3 -8 26 15 -12 -14 18 19 -11 -6 24 23 -23 -22 -16 29 28 -28 -5
right_child=5 3 4 13 20 -7 12 -9 -10 17 14 -13 16 -15 25 -17 -18 -19 -20 -21 21 22 -24 -25 -26 -27 27 -29 -30 -31
leaf_value=0.009353484594465394 -0.015112769215418393 0.007594157344932584 -0.0176899022041003 0.0014885913000169998 -0.00031905292051307566 -0.011199243473682074 -0.0027664779310492705 0.0035105569719310892 -0.0016404129584714805 0.0049483205949159706 -0.031110918650221898 -0.0019616329748483406 0.0016911801874327165 0.006224983055387239 -0.0020127770398683932 -0.0076489988940728589 -0.015451581625069311 0.00054717824007090277 0.019933115081681361 -0.014128771639593385 -0.019951320081376112 -0.0088392560178241174 -0.030337866122523944 0.019301408009671766 -0.056245144976881045 -0.036759756753842042 -0.024633049232841927 -0.042156343204392627 0.0016397104205965411 -0.017804648084147428
leaf_count=197 238 2749 223 1070 1080 504 982 2038 4725 1739 81 471 119 613 887 212 522 3212 154 84 77 96 29 81 28 20 85 32 203 88
internal_value=0 0.0150269 -0.000378453 0.0388079 -0.0475515 -0.0224119 -0.0171643 -0.00600759 -0.0228939 0.0111875 -0.0349617 0.0619623 -0.0652567 0.00313913 -0.0561168 -0.142188 -0.122714 0.0236163 0.0530777 0.0406202 -0.0267029 -0.108081 -0.00892891 0.0407476 -0.30069 -0.0281861 -0.0214025 -0.0989128 -0.0617281 8.34133e-05
internal_count=22639 13511 8200 5311 1614 9128 8624 7001 4963 6586 1397 3220 1623 2091 1200 293 641 5189 1977 1823 1391 311 206 177 105 907 1478 320 288 1158
shrinkage=0.1


Tree=10
num_leaves=31
num_cat=0
split_feature=4 5 7 7 4 8 8 6 3 1 8 6 8 8 1 6 6 6 0 8 3 1 8 0 8 3 3 0 8 8
split_gain=6.78169 5.12693 4.22442 9.23273 4.09715 4.05486 5.98468 3.87511 5.44633 3.24237 3.53782 3.03892 2.93089 3.92057 2.89899 3.1446 2.89333 2.88172 2.82678 2.77283 2.74024 2.68519 2.63725 2.57364 2.50429 2.48388 2.43109 2.40142 2.51077 2.38487
threshold=0.7801183578757831 1.0000000180025095e-35 1.0000000180025095e-35 1.1102601068728821 3.1000171482736092 -0.26201710170584586 -1.0540057856581544 -0.25455735779894023 0.34815548356248543 1.0000000180025095e-35 1.4961977766682799 -0.57425535338924694 -0.97480691726292379 0.35573407177695499 -1.5998462523818453 -0.03076876088572552 0.9922648250032563 0.28892923470458132 1.0000000180025095e-35 -1.3232819382019396 1.6837156834876938 -1.5998462523818453 -1.1807239750905241 1.0000000180025095e-35 -0.65801144368200026 0.84899055853443861 -1.4882397913346759 1.1059151206417848 -0.087779591236337981 -1.6717569591409553
decision_type=2 2 2 2 2 2 2 2 2 2 2 2 2 2 2 2 2 2 2 2 2 2 2 2 2 2 2 2 2 2
left_child=1 2 18 19 7 6 20 21 27 10 -10 -7 -6 14 15 -14 22 -5 26 -4 -3 -2 -11 -8 25 -19 -1 -9 -29 -22
right_child=4 5 3 17 12 11 23 8 9 16 -12 -13 13 -15 -16 -17 -18 24 -20 -21 29 -23 -24 -25 -26 -27 -28 28 -30 -31
leaf_value=0.0091321151457431551 0.015998109186393689 -0.0050244279574966407 -0.0040000308648867828 0.00030578980309608464 -0.013380023772613362 -0.03386436119102515 0.0016213385153333185 -0.0047518117837026218 -0.024221616610185476 0.0064820824772444515 0.0058316848509841496 -0.0056052234015354484 -0.026644397837420303 -0.0050689868332233793 0.016580444054912921 0.017637049458150207 -0.036995083889500666 -0.0099421699045110605 0.0026022228999071015 0.007170041273804652 -0.003231325625411926 -0.0015281143012556497 -0.010735302855397947 0.012324965816364792 -0.0031400653483477873 -0.036530968342692809 -0.0014040110588894534 -0.010928869323106483 0.023754655591786657 -0.039147449482460413
leaf_count=226 102 373 236 1840 90 38 667 1353 332 119 44 1656 35 203 289 28 32 112 3200 3655 30 577 345 338 310 51 6219 31 60 48
internal_value=0 0.00750203 0.0148257 0.0351797 -0.0396098 -0.0293395 0.00935954 -0.0551764 -0.0746457 -0.137008 -0.206986 -0.0625874 0.0326463 0.0598297 0.12353 -0.0699569 -0.08365 -0.0148517 0.00173104 0.0649169 -0.0862286 0.0112435 -0.0631519 0.0522984 -0.0843805 -0.184334 -0.0103319 -0.0369179 0.11949 -0.255493
internal_count=22639 18999 15849 6204 3640 3150 1456 2995 2316 872 376 1694 645 555 352 63 496 2313 9645 3891 451 679 464 1005 473 163 6445 1444 91 78
shrinkage=0.1


Tree=11
num_leaves=31
num_cat=0
split_feature=8 6 3 1 5 8 8 8 7 7 0 6 8 8 6 3 3 8 4 3 6 8 8 6 8 5 8 6 6 0
split_gain=6.00508 5.51926 5.77983 3.73725 3.6671 4.05462 7.35724 4.10129 5.18964 3.59644 3.12738 4.73879 3.0239 2.99464 3.06116 4.03945 2.92094 3.27472 3.68214 5.22447 2.65709 3.29015 4.84795 3.97915 4.15985 3.44532 4.20409 2.63728 2.6247 2.55612
threshold=-1.830154695931417 -0.35046675647603226 1.6837156834876938 -0.65700125094560125 1.0000000180025095e-35 1.4645182293101875 0.60917045064169384 0.30821475073981647 1.0000000180025095e-35 1.1102601068728821 1.1059151206417848 -0.15864795912184823 -1.4500001276343089 0.60917045064169384 0.54468763117682684 0.5151005085531366 0.5151005085531366 0.78340796111120181 -0.37983103732313006 -0.82045969137207175 -0.54228555383021626 -0.7530500857562773 -1.2599228434857548 -0.57425535338924694 -0.86392850150960054 1.0000000180025095e-35 1.2427613978035412 0.54468763117682684 0.83241582720810292 1.0000000180025095e-35
decision_type=2 2 2 2 2 2 2 2 2 2 2 2 2 2 2 2 2 2 2 2 2 2 2 2 2 2 2 2 2 2
left_child=-1 12 4 -4 5 6 7 9 -9 28 16 -12 -2 29 -15 -16 17 18 19 -8 21 22 -14 24 -24 26 -23 -18 -3 -6
right_child=1 2 3 -5 13 -7 10 8 -10 -11 11 -13 20 14 15 -17 27 -19 -20 -21 -22 25 23 -25 -26 -27 -28 -29 -30 -31
leaf_value=-0.012422615210841807 -0.012325446527664376 0.0011787065431356979 -0.017353254334154456 -0.0041995376540184285 -0.0037387084249944991 0.0059079726556648428 -0.045082805703083678 0.00096616430259939448 0.010157926187499765 -0.0049752505857306797 0.027108852674855907 -0.0063151652850540335 0.01207548209882163 -0.0055330232962741829 -0.032375586534007676 0.0039285654879429128 -0.022344581605683939 -0.0039178793158338677 -0.049694733231356647 0.0054217713970977528 0.0050664297107719742 0.0088900401481555834 0.019368507721810604 -0.048300271100820386 -0.033460430009290575 -0.014030160473306116 -0.025117804906331004 0.0050658039163884727 -0.0093790631084779263 0.003555347635908267
leaf_count=382 117 6739 274 1012 1571 1313 29 1611 992 1269 67 112 46 535 104 43 203 1091 32 64 3405 401 27 46 31 108 39 42 243 691
internal_value=0 0.00206261 -0.00555479 -0.0701342 -0.000593033 0.0062397 0.000682436 0.0101167 0.0447169 -0.00080293 -0.0617245 0.062766 0.0346142 -0.032629 -0.090663 -0.218012 -0.0770095 -0.0568473 -0.209523 -0.10639 0.0391449 -0.0170413 -0.147747 -0.266527 -0.089562 0.0189398 0.0582559 -0.176442 0.00809966 -0.0150992
internal_count=22639 22257 18037 1286 16751 13807 12494 10854 2603 8251 1640 179 4220 2944 682 147 1461 1216 125 93 4103 698 150 104 58 548 440 245 6982 2262
shrinkage=0.1


Tree=12
num_leaves=31
num_cat=0
split_feature=4 7 7 8 4 3 3 8 3 6 0 3 6 8 8 1 5 6 8 8 6 8 6 6 6 3 3 8 8 8
split_gain=5.25387 3.84063 6.25772 3.67554 3.15364 2.86437 2.84599 3.6906 2.84014 5.37723 2.81596 3.79699 2.74718 5.042 2.35493 2.31455 2.63935 2.34005 2.30995 3.16817 2.25227 3.41358 2.47729 2.21399 2.50634 2.14717 2.12304 2.09916 2.08516 2.02725
threshold=0.7801183578757831 1.0000000180025095e-35 1.1102601068728821 -1.3232819382019396 3.1000171482736092 -0.98740471636272276 -0.31962461640011869 -1.6717569591409553 0.34815548356248543 -0.35046675647603226 1.0000000180025095e-35 0.68204553354378761 0.12908023690942791 1.5912364187425569 0.60917045064169384 1.0000000180025095e-35 1.0000000180025095e-35 0.9922648250032563 -0.97480691726292379 0.45077271385123202 0.48074803205876543 -1.4500001276343089 -0.062738560444756189 0.033170838232335846 0.73650642853101089 -1.4882397913346759 0.1812104585718344 0.16565678762840086 1.2427613978035412 1.3694795872359105
decision_type=2 2 2 2 2 2 2 2 2 2 2 2 2 2 2 2 2 2 2 2 2 2 2 2 2 2 2 2 2 2
left_child=1 10 3 6 8 -5 -3 -8 -2 -10 11 12 14 29 25 16 20 -17 -6 -20 22 -22 -11 -13 -25 -1 27 -27 -24 -14
right_child=4 2 -4 5 18 -7 7 -9 9 15 -12 23 13 -15 -16 17 -18 -19 19 -21 21 -23 28 24 -26 26 -28 -29 -30 -31
leaf_value=0.01351601129056265 -0.0025249834468652177 0.0067256245955086506 -0.0010744848139636301 0.010801154469754139 -0.011924756879171173 0.004225502694570879 -0.0014084918124370551 -0.029760393991018649 0.009541584978527997 -0.014061450717910644 0.0016793881103487236 -0.012431104639783376 -0.0041836370479689635 0.019608903210610151 -0.0038005300633487862 -0.0056808367842483892 -0.0040899795556633934 -0.03317815125778769 0.010598008876736717 -0.005400435517852506 -0.036910349551750266 0.010651673363860359 -0.041210651996059229 -0.00013102506755213083 -0.021788353781353256 -0.0016958318134471545 0.0077704189494273426 0.0038903626690707394 -0.0083509484231472017 -0.020163130836494
leaf_count=149 1907 110 3108 820 90 3448 108 79 137 92 3865 468 1876 87 950 516 110 32 370 185 22 43 112 431 60 1871 438 1049 24 82
internal_value=0 0.00659142 0.0238639 0.0474238 -0.0348754 0.054911 -0.0599937 -0.134806 -0.0485325 -0.0892808 -0.00511116 -0.0164593 -0.00779032 -0.0381263 0.00613413 -0.11596 -0.173454 -0.0734403 0.0285175 0.0526507 -0.22291 -0.0576158 -0.269576 -0.0751654 -0.0281645 0.0180983 0.0128654 0.00311634 -0.355152 -0.048628
internal_count=22639 18999 7673 4565 3640 4268 297 187 2995 1088 11326 7461 6502 2045 4457 951 403 548 645 555 293 65 228 959 491 3507 3358 2920 136 1958
shrinkage=0.1


Tree=13
num_leaves=31
num_cat=0
split_feature=8 3 6 0 3 8 8 8 8 8 6 4 8 3 3 3 4 3 5 2 3 6 7 6 6 0 8 6 8 6
split_gain=4.68454 4.22245 3.38993 2.93828 5.2519 4.86893 4.25736 5.90259 5.41782 4.85265 3.41082 2.96973 3.17615 2.96698 4.10808 5.9673 2.88417 2.71153 2.8465 2.70188 2.62669 2.61217 2.72499 2.5688 3.07544 2.56858 3.13037 2.56316 2.51667 3.23757
threshold=-1.830154695931417 1.8506607084783451 0.64059702985391886 1.0000000180025095e-35 1.0159355835250898 1.8446727976072956 0.41909316649313971 0.16565678762840086 -0.46793415953344614 1.5912364187425569 0.54468763117682684 1.3600930554752397 1.1794023030873564 -0.82045969137207175 -0.15267959140946766 -0.48656964139076969 3.1000171482736092 1.1828806085157408 1.0000000180025095e-35 1.0000000180025095e-35 -0.98740471636272276 -0.25455735779894023 1.1102601068728821 -0.03076876088572552 0.12908023690942791 1.1059151206417848 -1.8618342432895096 -0.062738560444756189 -0.56297280160772323 0.57665743073585751
decision_type=2 2 2 2 2 2 2 2 2 2 2 2 2 2 2 2 2 2 2 2 2 2 2 2 2 2 2 2 2 2
left_child=25 2 3 4 6 -5 7 8 28 11 27 -8 20 -11 15 -15 -9 -6 -19 -3 -13 -20 -23 -16 -25 -1 -27 -10 -2 -30
right_child=1 19 -4 5 17 -7 9 16 10 13 -12 12 -14 14 23 -17 -18 18 21 -21 -22 22 -24 24 -26 26 -28 -29 29 -31
leaf_value=-0.0076284433469514957 0.00085450798479094813 -0.0046649840778373811 -0.0041655882075276075 0.0029503749951653641 -0.015712739099547894 -0.041280647784471519 -0.0029770231656108658 0.0053516424417337427 -0.0024097965484111742 0.014359020501170994 0.022054297609619147 0.0006644698125975473 -0.005881794060131053 0.0029261961017790087 0.022618355985620234 -0.030210170324426147 0.024791162133311173 0.00040835405996648478 0.0064969526976346977 -0.031428763020831425 -0.041063312489966877 -0.014079387059592339 -0.050515926788960192 -0.028919890871340476 0.013956088538874279 -0.0093328414184431878 -0.058167381522556155 -0.010700021840822102 0.0079880866138350715 -0.029316770595808825
leaf_count=329 4247 1189 1441 5724 273 24 2995 2336 977 243 45 20 142 169 100 79 78 438 39 38 60 82 27 26 43 30 23 603 796 23
internal_value=0 0.00181044 0.00513848 0.0085827 0.000689659 0.0275855 0.00570269 0.0175193 0.00222319 -0.0220455 -0.0480018 -0.0380707 -0.149417 0.0560049 0.00474461 -0.0770827 0.0598977 -0.0749905 -0.0365228 -0.0551877 -0.30752 -0.155917 -0.234821 0.12457 -0.0238242 -0.109732 -0.312099 -0.0557849 0.0183399 0.0690598
internal_count=22639 22257 21030 19589 13841 5748 12982 9105 6691 3877 1625 3217 222 660 417 248 2414 859 586 1227 80 148 109 169 69 382 53 1580 5066 819
shrinkage=0.1


Tree=14
num_leaves=31
num_cat=0
split_feature=4 8 8 8 8 8 3 1 6 3 2 3 6 6 6 4 8 6 8 0 8 6 8 8 3 6 0 1 6 6
split_gain=4.30419 3.2384 4.74362 3.64477 6.29752 7.94055 5.80033 4.6787 3.92586 4.73016 3.38677 3.24782 3.13047 4.01935 3.05762 3.05378 5.0896 3.84851 3.02705 2.98727 2.85203 2.7423 2.7314 2.72924 3.19079 3.91226 2.68982 3.11937 2.55939 2.55952
threshold=-0.37983103732313006 0.60917045064169384 1.1477227557292642 -0.7530500857562773 -0.26201710170584586 0.070618145554123782 1.0159355835250898 -0.65700125094560125 0.48074803205876543 -0.15267959140946766 1.0000000180025095e-35 1.1828806085157408 0.44877823249973475 0.48074803205876543 -0.03076876088572552 1.0000000180025095e-35 0.13397724027030852 -0.19061775868087891 -1.3232819382019396 1.1059151206417848 1.8129932502492034 0.9922648250032563 1.2744409451616334 1.3378000398778183 -0.48656964139076969 0.57665743073585751 2.2266569642913456 1.0000000180025095e-35 -0.60622515294827761 0.35286883382264272
decision_type=2 2 2 2 2 2 2 2 2 2 2 2 2 2 2 2 2 2 2 2 2 2 2 2 2 2 2 2 2 2
left_child=1 3 -3 6 -5 7 8 -6 28 -10 21 -8 20 -14 -9 16 17 -2 -13 -11 -4 -7 -18 24 -15 -26 27 -20 -1 -30
right_child=15 2 12 4 5 10 11 14 9 19 -12 18 13 23 -16 -17 22 -19 26 -21 -22 -23 -24 -25 25 -27 -28 -29 29 -31
leaf_value=0.032249749940017176 -0.041371426230935912 -0.012333906336360813 0.00066746825361138845 0.0068854814910917 -0.037973001005593691 0.002725163417480143 -0.026574659371679583 0.00018618282589935857 0.00013790185006744252 -0.031898695517257596 -0.010180954270022498 -0.018810192254536295 -0.04821076476573944 0.0022187384830821039 -0.020756213273853064 -0.0012866848317112439 0.011779071416740663 -0.011524319857181539 0.003894018283113837 0.0091775821331380441 0.029080315200230369 -0.020359456825714845 -0.010328054892965871 0.0036091273902201849 0.007851458476348357 -0.041966042400648197 0.020261800776728813 -0.02260738304829684 0.0012311480682479321 0.016622233713158116
leaf_count=28 66 381 1898 2679 63 5065 107 177 204 100 219 135 24 55 114 8715 106 125 124 21 35 51 116 138 21 59 50 68 1580 115
internal_value=0 0.0112527 -0.0203741 0.0188298 0.0288878 0.0100581 -0.0144089 -0.134763 0.00887396 -0.0917666 0.0196911 -0.112743 -0.00273495 -0.0981403 -0.0806104 -0.0168548 -0.100772 -0.219997 -0.0687299 -0.24753 0.011967 0.0249111 0.00233086 -0.0627486 -0.163307 -0.289535 -0.00163808 -0.055604 0.0278995 0.0228457
internal_count=22639 13511 2611 10900 8368 5689 2532 354 2048 325 5335 484 2230 297 291 9128 413 191 377 121 1933 5116 222 273 135 80 242 192 1723 1695
shrinkage=0.1


Tree=15
num_leaves=31
num_cat=0
split_feature=3 8 0 3 6 8 8 8 8 7 3 5 3 3 6 7 3 8 6 3 4 8 8 8 8 3 8 8 8 8
split_gain=3.67707 4.20495 4.00544 4.09438 3.61248 3.40463 5.30093 3.81646 3.21123 3.18096 3.05154 2.92976 2.77843 4.82955 3.22045 2.76135 2.71436 2.91951 3.08826 2.71411 2.57426 2.56642 2.49519 5.94327 5.03735 3.40609 3.31437 7.70723 3.31285 3.54222
threshold=-0.98740471636272276 -1.830154695931417 1.0000000180025095e-35 1.0159355835250898 0.28892923470458132 0.41909316649313971 0.26069542970267795 1.4961977766682799 -0.26201710170584586 1.1102601068728821 0.5151005085531366 1.0000000180025095e-35 -0.48656964139076969 -0.15267959140946766 -0.19061775868087891 1.0000000180025095e-35 -0.48656964139076969 -0.56297280160772323 1.0000000180025095e-35 0.84899055853443861 1.3600930554752397 1.5595568713844645 -1.3232819382019396 -1.73511605385714 -1.2916023908438472 0.1812104585718344 -0.56297280160772323 -0.68969099104009257 0.070618145554123782 -0.26201710170584586
decision_type=2 2 2 2 2 2 2 2 2 2 2 2 2 2 2 2 2 2 2 2 2 2 2 2 2 2 2 2 2 2
left_child=15 -2 3 4 5 6 8 10 16 -10 20 -8 14 -14 21 -1 -3 18 19 -18 -7 -9 23 -4 25 -24 27 -26 29 -28
right_child=1 2 22 -5 -6 7 11 12 9 -11 -12 -13 13 -15 -16 -17 17 -19 -20 -21 -22 -23 24 -25 26 -27 28 -29 -30 -31
leaf_value=0.00046854918552113135 -0.011456753173709215 -0.002163656952897856 0.013675925732082265 -0.0066914532884376453 -0.0043446294168427808 -0.0027655932606875577 0.0090509610994628543 0.020228726813235346 -0.0022643767684979335 -0.016489802480883605 -0.016739690411500457 -0.0088641160270199176 -0.017871163196294851 0.0061685605954273411 0.0165857818251345 0.0060229486833261927 0.00018653195697014129 0.011399851940056502 0.0084140724164598578 -0.021168290053786239 -0.018716660494822155 -0.0093324459645067574 0.058646134635352565 -0.013618856191049456 -0.00010954324901787493 0.013881727922042567 -0.00038925364115757164 0.013179962329286355 0.0015635471550982157 -0.013285254635530295
leaf_count=2040 347 1243 109 1343 2269 1420 1070 38 913 189 210 99 137 211 227 1594 1076 401 502 62 108 118 22 290 1072 69 579 735 3810 336
internal_value=0 -0.0056548 -0.00362322 -0.0150048 -0.00822595 0.00173772 0.0154701 -0.0291525 -0.000483202 -0.0471687 -0.0546412 0.0752749 0.0314403 -0.0331944 0.090102 0.0290589 0.0151925 0.0376215 0.0188883 -0.00994475 -0.0390453 -0.0204867 0.0152364 -0.0614684 0.0198661 0.252237 0.0165907 0.0530028 0.00265717 -0.0513417
internal_count=22639 19005 18658 11636 10293 8024 5555 2469 4386 1102 1738 1169 731 348 383 3634 3284 2041 1640 1138 1528 156 7022 399 6623 91 6532 1807 4725 915
shrinkage=0.1


Tree=16
num_leaves=31
num_cat=0
split_feature=6 3 8 2 4 8 7 7 8 8 6 6 8 8 8 3 3 1 6 8 8 6 8 5 8 8 8 3 4 6
split_gain=3.63523 3.4208 3.01431 2.83462 2.35982 2.24299 2.34999 2.39602 2.34135 2.44093 2.58585 3.50978 3.31344 2.71061 2.50439 2.25065 3.22244 2.25604 2.20176 2.60194 3.52888 3.32663 2.94699 2.63638 3.1287 2.33803 2.24268 2.10677 2.04845 3.42304
threshold=-0.35046675647603226 1.6837156834876938 -1.6083978644247707 1.0000000180025095e-35 -0.37983103732313006 1.8129932502492034 1.0000000180025095e-35 1.1102601068728821 0.60917045064169384 1.1477227557292642 -0.19061775868087891 -0.03076876088572552 1.5912364187425569 1.7813137028911112 1.2744409451616334 -0.98740471636272276 -0.31962461640011869 1.0000000180025095e-35 -0.54228555383021626 -0.7530500857562773 -1.2599228434857548 -0.57425535338924694 -0.86392850150960054 1.0000000180025095e-35 1.2427613978035412 -1.0540057856581544 1.7813137028911112 2.6853858334316008 1.0000000180025095e-35 -0.19061775868087891
decision_type=2 2 2 2 2 2 2 2 2 2 2 2 2 2 2 2 2 2 2 2 2 2 2 2 2 2 2 2 2 2
left_child=2 4 -1 -3 5 6 8 -8 -2 -10 -11 14 15 -14 -12 -13 17 -17 19 20 -4 22 -22 24 -21 -23 27 -20 29 -6
right_child=1 3 18 -5 28 -7 7 -9 9 10 11 12 13 -15 -16 16 -18 -19 26 23 21 25 -24 -25 -26 -27 -28 -29 -30 -31
leaf_value=-0.013136703641769493 0.0003917437191013374 -0.0046638215113546629 0.008992593494864802 -0.030494740207425576 -0.030044108574780133 0.030632795860059559 0.0046566906952183644 -0.0003876120447376621 -0.015234854833171186 -0.011384161585010589 0.02650779758004701 -0.028030302457511425 0.020757229305894638 -0.01325954795165947 0.003770139237061482 0.028663854000291658 -0.012250702045449757 -0.00061227331790968641 0.0047703335451739458 0.0072529821272068369 0.016189471312931605 -0.067635111532978381 -0.028277266724035147 -0.012759977874747658 -0.022082747139502319 -0.021610345175633067 -0.011935490540721837 -0.020261275691582877 -0.0013077725845377303 -0.0041844594653039314
leaf_count=117 5164 1271 47 43 64 24 2287 1600 179 253 68 49 81 32 164 34 250 106 3324 401 27 21 31 108 39 25 84 33 6470 243
internal_value=0 -0.00617116 0.0262556 -0.0553167 -0.00238461 0.0071572 0.00642809 0.0258075 -0.00538094 -0.0448392 -0.0261528 0.00225375 -0.0411246 0.110923 0.105198 -0.0804254 -0.05466 0.0665051 0.0307408 -0.020403 -0.136169 -0.238229 -0.0765368 0.0116858 0.0460859 -0.436136 0.0411329 0.0451831 -0.0168729 -0.0965544
internal_count=22639 18382 4257 1314 17068 10291 10267 3887 6380 1216 1037 784 552 113 232 439 390 140 4140 699 151 104 58 548 440 46 3441 3357 6777 307
shrinkage=0.1


Tree=17
num_leaves=31
num_cat=0
split_feature=6 8 8 3 4 3 3 8 6 8 0 0 3 5 8 6 0 3 8 8 6 8 8 8 8 6 8 6 6 8
split_gain=3.00818 3.26641 3.29886 3.05219 2.5581 3.07298 2.40066 4.62736 2.37838 2.30288 2.26173 2.71671 2.06082 3.73992 3.4863 2.03911 2.00421 2.48715 1.84771 1.82199 1.87375 1.79411 1.82315 2.75608 2.46863 4.3066 2.3707 1.89734 1.82338 4.05347
threshold=-0.094708360003786865 -1.0540057856581544 -1.1807239750905241 -0.31962461640011869 0.7801183578757831 1.6837156834876938 1.6837156834876938 -1.6717569591409553 1.3759024197116247 -1.4183205802762167 1.0000000180025095e-35 4.4681406515904669 1.0159355835250898 1.0000000180025095e-35 0.56165112960455532 0.033170838232335846 3.3473988079409063 2.0176057334689963 0.45077271385123202 -0.26201710170584586 -0.28652715735797091 -0.42041483849630762 -1.8618342432895096 -1.7826353748942785 -1.4500001276343089 -0.31849695691700158 -1.2916023908438472 -0.44637615515312429 -0.54228555383021626 -0.7530500857562773
decision_type=2 2 2 2 2 2 2 2 2 2 2 2 2 2 2 2 2 2 2 2 2 2 2 2 2 2 2 2 2 2
left_child=16 2 4 -4 6 -6 -2 -8 10 -9 12 -12 -3 14 15 -14 17 21 19 20 -19 22 -1 -24 25 27 -26 -25 29 -28
right_child=1 8 3 -5 5 -7 7 9 -10 -11 11 -13 13 -15 -16 -17 -18 18 -20 -21 -22 -23 23 24 26 -27 28 -29 -30 -31
leaf_value=-0.0097802088406212916 0.00072331826842691083 -0.00077970323039003298 -0.029775635161880226 -0.0074866934501993908 -0.012624559754219193 0.014230545918690041 0.013702029244680154 -0.040716691630390975 -0.023849327247156656 -0.0014116113920780745 0.0021959747289713558 -0.020015694000176155 -0.013246543586931446 -0.019362330629197927 -0.014199621621996929 0.0080379352336513339 0.019001619198492595 0.0048314867482062368 -0.017146063635841566 0.0098074263773913345 -0.01769720669525365 0.00032879003541244861 0.020405778333404533 0.0015940199515992596 0.013598518799357723 0.0030569040508049987 -0.019033156288382799 -0.027314775450782772 0.0038105340311529283 0.0055232117306096137
leaf_count=107 1060 6080 92 184 389 47 37 51 42 21 3324 55 54 171 155 248 62 62 120 84 89 6187 92 30 229 229 114 91 2972 161
internal_value=0 -0.010918 -0.0491758 -0.14997 -0.0317604 -0.0970369 -0.00735218 -0.147968 -0.00380922 -0.294291 -0.0028085 0.0182862 -0.0134356 -0.0679265 -0.0205733 0.0420094 0.0121784 0.011117 -0.0710508 -0.0192684 -0.0847609 0.0139801 0.0304107 0.0339362 0.0297932 -0.0501555 0.0378554 -0.20193 0.0308949 -0.046886
internal_count=22639 12010 1881 276 1605 436 1169 109 10129 72 10087 3379 6708 628 457 302 10629 10567 355 235 151 10212 4025 3918 3826 350 3476 121 3247 275
shrinkage=0.1


Tree=18
num_leaves=31
num_cat=0
split_feature=3 1 6 1 4 8 4 8 8 0 3 4 8 8 3 8 6 4 8 8 8 6 6 8 8 8 3 6 6 6
split_gain=2.92467 3.41943 4.57089 3.88235 3.81273 3.04668 2.87626 2.45353 2.34086 2.33784 2.95923 3.39074 3.14474 3.93816 3.41847 3.71937 4.9007 3.63411 2.66685 6.80389 3.10029 2.78585 2.56792 2.34513 3.17484 4.63386 3.1407 3.39826 4.03323 3.29305
threshold=-0.98740471636272276 -0.65700125094560125 1.0242346245622871 -1.5998462523818453 0.7801183578757831 -1.830154695931417 1.0000000180025095e-35 1.7813137028911112 -0.26201710170584586 1.0000000180025095e-35 0.34815548356248543 -0.37983103732313006 0.60917045064169384 1.2110818504454486 -0.31962461640011869 -0.68969099104009257 0.60862723029488819 1.0000000180025095e-35 -1.4500001276343089 -1.73511605385714 -1.2916023908438472 0.3848386333816734 -0.35046675647603226 1.3378000398778183 -0.56297280160772323 -0.68969099104009257 -0.48656964139076969 -0.35046675647603226 -0.25455735779894023 0.57665743073585751
decision_type=2 2 2 2 2 2 2 2 2 2 2 2 2 2 2 2 2 2 2 2 2 2 2 2 2 2 2 2 2 2
left_child=-1 2 3 -2 6 -3 -5 9 -6 10 12 -12 14 -14 22 16 -16 -17 19 -11 21 -20 -7 24 25 -22 -26 -28 -29 -30
right_child=1 5 -4 4 8 7 -8 -9 -10 18 11 -13 13 -15 15 17 -18 -19 20 -21 23 -23 -24 -25 26 -27 27 28 29 -31
leaf_value=0.0025915077463477317 -0.0011666933668223127 -0.0099859361642414771 -0.029138740841577304 -0.010267988585095589 -0.041719663053750994 0.0052747897512659394 0.005847295597437528 -0.0069535425335212593 -0.014396598999285035 0.01381895426545561 0.00013779628175793082 -0.0075549236339845964 -0.012261060841346965 -0.00043239346620578176 0.0012738734776441304 0.0038702092073063426 -0.030837005280101526 0.014442565509119903 0.028711620463529625 -0.01917967094275148 0.00056356675997044545 -0.0044851635482061553 -0.0016300548090811306 0.0082236504089754723 0.011335020567434774 0.011489476592509497 0.0063972714569536047 -0.014216915318276733 0.00016495119266296066 -0.012192762774149223
leaf_count=3634 2891 290 66 395 49 678 153 446 89 96 1203 1093 376 1111 552 849 51 527 82 175 925 36 2604 592 212 668 479 274 1799 244
internal_value=0 -0.00504405 -0.0325842 -0.0277289 -0.095303 0.00148862 -0.0576619 0.00344515 -0.243286 0.0056752 -0.00425744 -0.0352598 0.00629475 -0.034296 0.0177719 0.0505873 -0.0148853 0.0792691 0.021766 -0.0748229 0.0267077 0.186312 -0.0020247 0.0230459 0.0154137 0.0514951 -0.00370527 -0.0126181 -0.0284727 -0.013162
internal_count=22639 19005 3643 3577 686 15362 548 15072 138 14626 9044 2296 6748 1487 5261 1979 603 1376 5582 271 5311 118 3282 5193 4601 1593 3008 2796 2317 2043
shrinkage=0.1


Tree=19
num_leaves=31
num_cat=0
split_feature=4 7 7 3 7 3 6 2 8 1 3 3 8 8 8 3 8 8 6 6 3 3 8 3 6 6 8 6 6 8
split_gain=2.44607 2.37798 3.10081 2.23485 2.17171 2.58431 3.6334 3.53026 3.08149 2.15271 2.72259 2.37969 2.22153 2.39507 2.1435 2.09704 1.9699 3.59743 4.1893 2.10747 2.24928 4.69407 3.97639 3.95485 3.97034 2.71099 2.56445 2.16366 2.22874 1.94372
threshold=-0.37983103732313006 1.1102601068728821 1.0000000180025095e-35 0.1812104585718344 1.0000000180025095e-35 -0.65351466638142075 0.28892923470458132 1.0000000180025095e-35 -0.056100043878245624 1.0000000180025095e-35 1.6837156834876938 1.3498256335063918 0.30821475073981647 -0.53129325424963081 -0.26201710170584586 1.8506607084783451 -0.68969099104009257 -0.42041483849630762 0.9922648250032563 0.96029502544422563 1.0000000180025095e-35 -0.82045969137207175 -0.86392850150960054 1.0159355835250898 0.48074803205876543 0.22498963558651994 -1.2282432961276626 -0.094708360003786865 -0.03076876088572552 -0.56297280160772323
decision_type=2 2 2 2 2 2 2 2 2 2 2 2 2 2 2 2 2 2 2 2 2 2 2 2 2 2 2 2 2 2
left_child=4 2 -2 -3 9 6 -6 -7 -9 10 16 29 13 15 -12 -13 19 -18 -19 20 21 26 -23 24 25 27 -1 -22 -29 -11
right_child=1 3 -4 -5 5 7 -8 8 -10 11 14 12 -14 -15 -16 -17 17 18 -20 -21 23 22 -24 -25 -26 -27 -28 28 -30 -31
leaf_value=0.017051750492415765 -0.0017933936119392726 -0.0013566095690353739 0.002725653695986506 -0.0086177250351986024 0.0076196310507433669 0.0015281442394727179 -0.0051090676986955503 0.0016315702988307864 -0.028474476894208539 0.0045124619380447796 -0.0015366872409516472 0.02015003191220369 -0.00015758745160890871 0.026871601416349575 -0.019662578815493631 -0.005224198401484588 0.0070909080311536647 -0.0012824852819460655 -0.04617454955975215 0.025507641380483455 0.016346448621677483 -0.0095010049563102623 -0.033682288297819434 -0.015137709484466154 -0.023131247003300069 0.035436260079344112 -0.0061470027544507479 -0.028164450159030303 0.0053724632680635246 -0.00064938731178077846
leaf_count=66 5287 941 2129 771 1436 3474 265 62 74 967 117 58 162 98 147 72 592 2068 20 21 105 184 108 121 38 38 164 27 67 2960
internal_value=0 -0.0127162 -0.00495864 -0.0462978 0.00847282 0.0242242 0.0563478 0.00907645 -0.148379 -0.0017308 -0.0188124 0.0136344 0.0880329 0.151431 -0.116656 0.0616401 -0.0116446 0.00217001 -0.0173438 -0.0510333 -0.0583058 -0.101355 -0.185292 -0.00144732 0.0648312 0.113087 0.0055503 0.0654723 -0.0445555 0.00622512
internal_count=22639 9128 7416 1712 13511 5311 1701 3610 136 8200 3883 4317 390 228 264 130 3619 2680 2088 939 918 522 292 396 275 237 230 199 94 3927
shrinkage=0.1


end of trees

feature importances:
8=202
6=129
3=117
4=40
0=36
7=29
1=26
5=17
2=4

parameters:
[boosting: gbdt]
[objective: regression]
[metric: l2,l1]
[tree_learner: serial]
[device_type: cpu]
[data: ]
[valid: ]
[num_iterations: 100]
[learning_rate: 0.1]
[num_leaves: 31]
[num_threads: 0]
[max_depth: -1]
[min_data_in_leaf: 20]
[min_sum_hessian_in_leaf: 0.001]
[bagging_fraction: 1]
[bagging_freq: 0]
[bagging_seed: 7719]
[feature_fraction: 1]
[feature_fraction_seed: 2437]
[early_stopping_round: 0]
[max_delta_step: 0]
[lambda_l1: 0]
[lambda_l2: 1]
[min_gain_to_split: 0]
[drop_rate: 0.1]
[max_drop: 50]
[skip_drop: 0.5]
[xgboost_dart_mode: 0]
[uniform_drop: 0]
[drop_seed: 21238]
[top_rate: 0.2]
[other_rate: 0.1]
[min_data_per_group: 100]
[max_cat_threshold: 32]
[cat_l2: 10]
[cat_smooth: 10]
[max_cat_to_onehot: 4]
[top_k: 20]
[monotone_constraints: ]
[feature_contri: ]
[forcedsplits_filename: ]
[refit_decay_rate: 0.9]
[verbosity: 1]
[max_bin: 255]
[min_data_in_bin: 3]
[bin_construct_sample_cnt: 200000]
[histogram_pool_size: -1]
[data_random_seed: 38]
[output_model: LightGBM_model.txt]
[snapshot_freq: -1]
[input_model: ]
[output_result: LightGBM_predict_result.txt]
[initscore_filename: ]
[valid_data_initscores: ]
[pre_partition: 0]
[enable_bundle: 1]
[max_conflict_rate: 0]
[is_enable_sparse: 1]
[sparse_threshold: 0.8]
[use_missing: 1]
[zero_as_missing: 0]
[two_round: 0]
[save_binary: 0]
[enable_load_from_binary_file: 1]
[header: 0]
[label_column: ]
[weight_column: ]
[group_column: ]
[ignore_column: ]
[categorical_feature: ]
[predict_raw_score: 0]
[predict_leaf_index: 0]
[predict_contrib: 0]
[num_iteration_predict: -1]
[pred_early_stop: 0]
[pred_early_stop_freq: 10]
[pred_early_stop_margin: 10]
[convert_model_language: ]
[convert_model: gbdt_prediction.cpp]
[num_class: 1]
[is_unbalance: 0]
[scale_pos_weight: 1]
[sigmoid: 1]
[boost_from_average: 1]
[reg_sqrt: 0]
[alpha: 0.9]
[fair_c: 1]
[poisson_max_delta_step: 0.7]
[tweedie_variance_power: 1.5]
[max_position: 20]
[label_gain: ]
[metric_freq: 1]
[is_provide_training_metric: 0]
[eval_at: ]
[num_machines: 1]
[local_listen_port: 12400]
[time_out: 120]
[machine_list_filename: ]
[machines: ]
[gpu_platform_id: -1]
[gpu_device_id: -1]
[gpu_use_dp: 0]

end of parameters

pandas_categorical:[]
